{"feature_means":[8819.081055,0.500344,1801.109985,1399.401489,14.050744,31.216511,316.761963],"feature_stds":[1856.876465,20.438374,1037.835815,809.486694,6.935925,9.725068,43.298965],"layers":[{"activation":"relu","bias":[0.386316,-0.364681,0.043601,-0.276591,-0.339749,0.017394,0.194416,0.184714,-0.069664,0.278538,0.056308,-0.143675,0.069722,0.189962,0.080289,-0.264938,0.123978,-0.171209,-0.348863,-0.270795,0.391819,0.347091,0.431296,0.291956,0.383403,0.042893,-0.105934,0.185952,-0.267951,-0.199747,-0.140394,0.076055,0.115489,-0.101091,-0.29376,-0.024411,-0.128206,-0.298066,0.174777,-0.118713,0.445065,0.317511,0.090644,0.136055,0.181748,0.07681,-0.026427,-0.074563,0.07193,0.27923,-0.001224,-0.056038,-0.166625,-0.255592,-0.01016,0.21408,0.221161,0.26674,-0.174733,-0.107193,0.01688,-0.12568,-0.047064,-0.389841],"weights":[[0.385927,0.214031,-0.091921,0.24837,0.019771,0.02816,-0.087178],[0.145372,0.254332,-0.183889,0.24331,-0.020081,0.216056,-0.025372],[0.090911,0.043073,0.233687,0.154871,-0.280762,0.116541,-0.265334],[-0.138927,-0.235598,0.340639,-0.391573,-0.272553,-0.196051,-0.321748],[0.116457,-0.456771,0.260822,-0.357467,0.260625,0.087203,-0.042105],[0.153072,0.143816,0.286689,0.120216,-0.216561,0.163392,-0.182938],[0.251194,0.250224,0.159984,-0.093689,0.175594,0.007773,0.283898],[-0.32986,-0.2824,-0.105323,-0.250362,0.264495,0.053327,0.057222],[0.153141,-0.021383,0.227573,-0.254814,0.089833,-0.302809,0.150018],[-0.0551,0.03049,-0.031252,0.3847,-0.272996,-0.311284,-0.150388],[0.384907,0.084698,0.295962,-0.292117,-0.329139,-0.368252,-0.209428],[0.245332,0.044464,0.345452,-0.252856,-0.230701,0.149466,-0.060763],[0.321551,-0.165445,0.215734,-0.332925,-0.152008,0.023958,0.171885],[-0.189209,0.32298,0.190361,-0.180313,-0.303579,0.265179,-0.220241],[-0.069272,-0.431983,-0.176632,0.038216,0.026166,-0.229882,0.073571],[-0.256426,-0.36646,-0.196202,-0.321065,-0.250903,0.395772,0.073453],[0.190021,-0.39869,-0.229865,-0.140031,0.154137,-0.300244,-0.089481],[-0.249766,0.029411,-0.160781,0.014271,-0.280261,-0.271001,-0.243897],[-0.093731,-0.265085,0.28565,-0.089294,0.292313,0.185918,-0.284283],[0.194313,-0.038906,-0.159537,-0.242087,-0.313775,0.075221,-0.149793],[0.176783,-0.286477,0.240934,-0.244444,-0.027991,-0.004101,0.224537],[0.395296,0.247547,-0.260588,0.025511,-0.06163,-0.034582,-0.192852],[0.435817,-0.189522,0.09888,0.075137,0.102115,-0.197786,0.434947],[0.154662,-0.004528,-0.286656,0.108743,0.016334,-0.171877,0.396192],[-0.008775,-0.114732,-0.099242,0.044152,0.111604,-0.067282,-0.308567],[-0.031179,-0.365352,0.137886,0.247228,-0.253735,0.028639,0.293361],[-0.02729,-0.034309,0.294693,0.301469,0.220622,-0.142036,-0.195855],[0.125825,-0.144807,-0.162571,0.182812,0.388438,-0.019458,0.000636],[-0.066765,0.045224,0.034081,0.02799,-0.26663,-0.051597,0.246116],[0.203625,-0.044386,-0.29401,-0.254077,-0.353966,-0.178155,0.183938],[0.227234,0.21601,-0.341847,-0.163062,-0.050297,0.291427,0.040629],[-0.103423,0.167808,-0.070849,-0.281868,0.263938,-0.126932,-0.081094],[-0.295787,0.155675,0.358406,0.206037,-0.265654,-0.315288,-0.226754],[0.37234,0.095709,0.331675,0.167406,0.101007,-0.050981,-0.197095],[-0.252271,-0.276598,0.07198,-0.11261,0.001903,-0.143524,0.002688],[-0.188502,-0.322729,0.179857,-0.177266,0.308964,-0.047562,-0.199723],[0.027061,-0.265409,-0.163805,-0.423149,0.298719,-0.303386,0.283656],[0.12029,0.216658,-0.251642,0.223779,-0.097638,0.083772,0.303672],[-0.067178,0.020942,-0.167051,-0.305894,0.26204,-0.413837,0.220608],[0.35295,0.297949,-0.049769,-0.333215,0.161098,0.240276,-0.306069],[-0.181884,-0.132595,-0.031006,-0.094352,-0.134105,-0.059575,-0.455142],[0.383488,0.232244,-0.038164,-0.104467,-0.059816,-0.313079,-0.294488],[0.129181,-0.177159,-0.28531,0.035395,-0.121071,-0.190378,0.000699],[-0.171184,-0.042341,-0.144623,-0.268671,0.285843,-0.201052,0.009246],[-0.036874,-0.053886,0.309546,0.121472,-0.225574,0.076529,0.452861],[0.197299,0.16012,0.36538,-0.041638,0.122325,-0.271997,0.019865],[0.36336,0.121639,-0.21585,-0.338579,-0.165114,-0.335855,-0.208327],[-0.013586,0.171361,0.116817,-0.325421,-0.208889,0.252368,-0.201317],[0.030585,0.204766,-0.255893,-0.112882,0.056118,-0.033593,-0.114539],[-0.255884,-0.384062,-0.216281,0.441231,-0.150216,-0.245314,0.172611],[0.202104,0.122242,0.298119,0.186829,-0.368035,-0.015997,0.3268],[-0.127448,-0.127195,0.350729,-0.078653,-0.238843,-0.421911,-0.075609],[0.091546,0.141429,0.050908,-0.212133,-0.277388,0.096032,0.268824],[0.144475,-0.144973,0.00915,-0.20305,-0.110289,0.096099,0.132353],[0.23458,-0.262158,0.286327,-0.208522,0.125444,0.405924,-0.073124],[0.274735,-0.347058,-0.193234,0.282906,-0.157824,-0.11783,-0.22664],[0.180533,0.25958,0.131708,-0.288597,-0.386961,0.109315,0.032085],[-0.266794,-0.011523,0.169771,0.121583,-0.084547,-0.168143,-0.434466],[-0.454253,-0.084426,-0.293794,0.208261,-0.214216,-0.228369,0.261512],[0.036807,0.36136,-0.233779,-0.216515,0.05621,-0.334021,-0.341896],[-0.115011,-0.037742,-0.289189,0.310473,0.26188,0.001605,-0.162474],[-0.289658,-0.210394,0.143027,0.122481,0.015725,-0.091404,0.271046],[-0.221925,0.150458,-0.068227,-0.080466,0.011608,0.121094,-0.035133],[0.23275,0.046276,0.233113,0.332223,-0.127311,-0.239673,0.261091]]},{"activation":"linear","bias":[-0.104343],"weights":[[0.1355,-0.014745,-0.134763,-0.19894,0.065075,-0.062384,0.184581,-0.105385,0.070382,-0.005532,0.064338,0.16153,0.17829,-0.204393,-0.010088,-0.062772,0.042416,-0.069505,-0.048888,0.012793,0.067859,0.161011,0.173053,0.087187,-0.212799,0.097791,-0.185501,0.111038,0.003108,0.081686,0.055626,-0.058866,0.03144,0.067017,-0.008649,0.013106,0.194896,0.042165,0.057068,-0.006677,-0.125482,0.006751,0.055833,-0.144199,0.139215,0.100239,0.062672,0.039682,0.005599,0.03961,0.095414,-0.206681,-0.00596,0.002224,-0.032281,0.017629,-0.035824,-0.206325,-0.178005,-0.219024,-0.173723,-0.023439,0.020636,0.046579]]}],"manifest":{"metrics":{"mape":0.015572,"physics_violation_rate":0.098,"rmse":6.046825,"validation_loss":10269.630859},"model_key":"pinn-dispatch-v2","model_version":"pinn-dispatch-v2","seed":42,"simulator_config":{"name":"pandapower","scenario_count":5000,"topology":"IEEE-30","version":"pandapower-dcopf-ieee30-v1"},"trained_at":"2026-04-24T17:30:06Z","training_artifact_sha":"8e97c7912b30cbca06f609bb3c646adc5c18545b77f429df874a50509eaf6eeb","training_data_profile":"simulator-calibrated","warnings":["Simulator-calibrated on pandapower DC-OPF LHS scenarios for IEEE-30. Real-world fine-tuning pending partner data."]},"target_mean":312.162537,"target_std":41.112343}
